{"learner":{"attributes":{"scikit_learn":"{\"_estimator_type\": \"regressor\"}"},"feature_names":["price","ret_1d","ret_5d","mom_3","mom_5","mom_10","roc_5","ma_3","ma_5","ma_10","ema_3","ema_5","ema_10","ema_20","vol_5","vol_10","slope_5","slope_10","rsi_14","macd","macd_signal","macd_hist","bb_pos"],"feature_types":["float","float","float","float","float","float","float","float","float","float","float","float","float","float","float","float","float","float","float","float","float","float","float"],"gradient_booster":{"model":{"cats":{"enc":[],"feature_segments":[],"sorted_idx":[]},"gbtree_model_param":{"num_parallel_tree":"1","num_trees":"50"},"iteration_indptr":[0,1,2,3,4,5,6,7,8,9,10,11,12,13,14,15,16,17,18,19,20,21,22,23,24,25,26,27,28,29,30,31,32,33,34,35,36,37,38,39,40,41,42,43,44,45,46,47,48,49,50],"tree_info":[0,0,0,0,0,0,0,0,0,0,0,0,0,0,0,0,0,0,0,0,0,0,0,0,0,0,0,0,0,0,0,0,0,0,0,0,0,0,0,0,0,0,0,0,0,0,0,0,0,0],"trees":[{"base_weights":[1.3897184E-4,4.765355E-3,-2.5399818E-4,8.307127E-3,-1.0969695E-3,-4.4079777E-3,1.7251918E-4,9.4962146E-5,1.1954226E-3,1.9176766E-4,-1.0414862E-3,2.9393015E-4,-6.175923E-4,1.2174712E-3,6.2325635E-6],"categories":[],"categories_nodes":[],"categories_segments":[],"categories_sizes":[],"default_left":[0,0,0,0,0,0,0,0,0,0,0,0,0,0,0],"id":0,"left_children":[1,3,5,7,9,11,13,-1,-1,-1,-1,-1,-1,-1,-1],"loss_changes":[1.6719799E-3,1.5040499E-3,1.5031996E-3,1.1961579E-3,8.0649636E-4,1.04433E-3,1.0176157E-3,0E0,0E0,0E0,0E0,0E0,0E0,0E0,0E0],"parents":[2147483647,0,0,1,1,2,2,3,3,4,4,5,5,6,6],"right_children":[2,4,6,8,10,12,14,-1,-1,-1,-1,-1,-1,-1,-1],"split_conditions":[-1.8618742E0,8.460388E-3,-1.671769E-2,1.1336628E2,4.7415623E1,1.0233519E2,-6.625256E-2,9.4962146E-5,1.1954226E-3,1.9176766E-4,-1.0414862E-3,2.9393015E-4,-6.175923E-4,1.2174712E-3,6.2325635E-6],"split_indices":[19,1,1,13,18,0,2,0,0,0,0,0,0,0,0],"split_type":[0,0,0,0,0,0,0,0,0,0,0,0,0,0,0],"sum_hessian":[9.18E2,7.1E1,8.47E2,4.4E1,2.7E1,7.8E1,7.69E2,1.5E1,2.9E1,2.1E1,6E0,1.5E1,6.3E1,6E0,7.63E2],"tree_param":{"num_deleted":"0","num_feature":"23","num_nodes":"15","size_leaf_vector":"1"}},{"base_weights":[-1.7173906E-4,7.4805925E-3,-3.9066953E-4,5.6602466E-3,1.9549828E-3,6.473491E-4,-1.8024386E-3,1.0123982E-3,-4.532719E-4,2.2748436E-5,7.3172146E-4,2.514049E-4,-2.7363037E-4],"categories":[],"categories_nodes":[],"categories_segments":[],"categories_sizes":[],"default_left":[0,0,0,0,0,0,0,0,0,0,0,0,0],"id":1,"left_children":[1,3,5,7,-1,9,11,-1,-1,-1,-1,-1,-1],"loss_changes":[1.566004E-3,4.6056788E-4,1.3317888E-3,1.1378578E-3,0E0,1.4657668E-3,1.5588205E-3,0E0,0E0,0E0,0E0,0E0,0E0],"parents":[2147483647,0,0,1,1,2,2,3,3,5,5,6,6],"right_children":[2,4,6,8,-1,10,12,-1,-1,-1,-1,-1,-1],"split_conditions":[-2.3502882E0,6.1726336E0,1.4365085E0,9.718254E-1,1.9549828E-3,6.547846E-1,1.8650908E0,1.0123982E-3,-4.532719E-4,2.2748436E-5,7.3172146E-4,2.514049E-4,-2.7363037E-4],"split_indices":[20,5,14,16,0,21,15,0,0,0,0,0,0],"split_type":[0,0,0,0,0,0,0,0,0,0,0,0,0],"sum_hessian":[9.32E2,2.5E1,9.07E2,2.3E1,2E0,5.23E2,3.84E2,1.6E1,7E0,4.93E2,3E1,6.8E1,3.16E2],"tree_param":{"num_deleted":"0","num_feature":"23","num_nodes":"13","size_leaf_vector":"1"}},{"base_weights":[-1.3309646E-4,-3.4817294E-3,2.8261714E-4,-6.7166565E-3,-5.363995E-4,1.2384195E-2,1.1993425E-4,-1.4524137E-4,-1.0002264E-3,1.0829576E-3,-2.1491633E-4,1.4592278E-3,-4.8483154E-4,1.925208E-5,-1.9711978E-3],"categories":[],"categories_nodes":[],"categories_segments":[],"categories_sizes":[],"default_left":[0,0,0,0,0,0,0,0,0,0,0,0,0,0,0],"id":2,"left_children":[1,3,5,7,9,11,13,-1,-1,-1,-1,-1,-1,-1,-1],"loss_changes":[1.2983955E-3,9.777737E-4,1.6325522E-3,8.329877E-4,1.0314594E-3,4.8930664E-4,1.1842095E-3,0E0,0E0,0E0,0E0,0E0,0E0,0E0,0E0],"parents":[2147483647,0,0,1,1,2,2,3,3,4,4,5,5,6,6],"right_children":[2,4,6,8,10,12,14,-1,-1,-1,-1,-1,-1,-1,-1],"split_conditions":[-7.5020987E-1,1.3616093E2,-2.8859918E0,-2.0442295E0,1.3905667E2,9.718254E-1,1.8800276E2,-1.4524137E-4,-1.0002264E-3,1.0829576E-3,-2.1491633E-4,1.4592278E-3,-4.8483154E-4,1.925208E-5,-1.9711978E-3],"split_indices":[21,7,19,19,7,16,10,0,0,0,0,0,0,0,0],"split_type":[0,0,0,0,0,0,0,0,0,0,0,0,0,0,0],"sum_hessian":[9.31E2,1.02E2,8.29E2,4.8E1,5.4E1,1E1,8.19E2,1.9E1,2.9E1,6E0,4.8E1,9E0,1E0,8.17E2,2E0],"tree_param":{"num_deleted":"0","num_feature":"23","num_nodes":"15","size_leaf_vector":"1"}},{"base_weights":[6.0305506E-6,-6.633162E-3,3.0847595E-4,-8.83456E-3,1.0983817E-3,-1.2730315E-2,4.1022437E-4,2.2079732E-5,-1.3748746E-3,1.4787437E-4,-1.8709687E-3,3.996126E-4,7.6965825E-6],"categories":[],"categories_nodes":[],"categories_segments":[],"categories_sizes":[],"default_left":[0,0,0,0,0,0,0,0,0,0,0,0,0],"id":3,"left_children":[1,3,5,7,-1,9,11,-1,-1,-1,-1,-1,-1],"loss_changes":[1.88956E-3,1.6870984E-3,1.1992309E-3,1.6495248E-3,0E0,6.2239554E-4,1.0680512E-3,0E0,0E0,0E0,0E0,0E0,0E0],"parents":[2147483647,0,0,1,1,2,2,3,3,5,5,6,6],"right_children":[2,4,6,8,-1,10,12,-1,-1,-1,-1,-1,-1],"split_conditions":[-4.897208E0,4.3378897E0,-1.5617101E0,3.783284E1,1.0983817E-3,-5.6526996E-2,-1.8618742E0,2.2079732E-5,-1.3748746E-3,1.4787437E-4,-1.8709687E-3,3.996126E-4,7.6965825E-6],"split_indices":[3,14,17,18,0,6,19,0,0,0,0,0,0],"split_type":[0,0,0,0,0,0,0,0,0,0,0,0,0],"sum_hessian":[9.39E2,4E1,8.99E2,3.6E1,4E0,6E0,8.93E2,1.3E1,2.3E1,2E0,4E0,7.5E1,8.18E2],"tree_param":{"num_deleted":"0","num_feature":"23","num_nodes":"13","size_leaf_vector":"1"}},{"base_weights":[-1.8695294E-4,-8.8052615E-4,1.1524984E-3,-5.174858E-4,-7.2125504E-3,2.0100125E-3,-4.8145996E-3,3.4312694E-4,-9.3096685E-5,-1.6069998E-3,-4.649044E-4,8.044236E-5,5.4314197E-4,-1.2924442E-3,1.7415633E-4],"categories":[],"categories_nodes":[],"categories_segments":[],"categories_sizes":[],"default_left":[0,0,0,0,0,0,0,0,0,0,0,0,0,0,0],"id":4,"left_children":[1,3,5,7,9,11,13,-1,-1,-1,-1,-1,-1,-1,-1],"loss_changes":[8.603468E-4,1.3985237E-3,1.6266087E-3,9.469155E-4,6.7459187E-4,1.1382035E-3,2.1492867E-3,0E0,0E0,0E0,0E0,0E0,0E0,0E0,0E0],"parents":[2147483647,0,0,1,1,2,2,3,3,4,4,5,5,6,6],"right_children":[2,4,6,8,10,12,14,-1,-1,-1,-1,-1,-1,-1,-1],"split_conditions":[1.6370435E0,4.6038336E-1,5.302454E0,-1.9097137E0,-1.1081516E0,3.0103276E0,3.0399985E0,3.4312694E-4,-9.3096685E-5,-1.6069998E-3,-4.649044E-4,8.044236E-5,5.4314197E-4,-1.2924442E-3,1.7415633E-4],"split_indices":[4,21,3,19,20,15,14,0,0,0,0,0,0,0,0],"split_type":[0,0,0,0,0,0,0,0,0,0,0,0,0,0,0],"sum_hessian":[9.24E2,6.09E2,3.15E2,5.77E2,3.2E1,2.76E2,3.9E1,5.4E1,5.23E2,6E0,2.6E1,2.05E2,7.1E1,1.7E1,2.2E1],"tree_param":{"num_deleted":"0","num_feature":"23","num_nodes":"15","size_leaf_vector":"1"}},{"base_weights":[-2.0016383E-4,-5.0364336E-4,3.1099122E-3,1.0259079E-4,-3.401236E-3,8.698019E-3,3.617514E-4,4.8299884E-5,-5.177708E-4,1.7691031E-3,-3.6632852E-4,1.0458723E-3,-3.6005318E-4,-1.0388352E-3,1.6707077E-4],"categories":[],"categories_nodes":[],"categories_segments":[],"categories_sizes":[],"default_left":[0,0,0,0,0,0,0,0,0,0,0,0,0,0,0],"id":5,"left_children":[1,3,5,7,9,11,13,-1,-1,-1,-1,-1,-1,-1,-1],"loss_changes":[9.4482955E-4,1.5127982E-3,1.2100576E-3,1.4346811E-3,8.883623E-4,6.006637E-4,7.772123E-4,0E0,0E0,0E0,0E0,0E0,0E0,0E0,0E0],"parents":[2147483647,0,0,1,1,2,2,3,3,4,4,5,5,6,6],"right_children":[2,4,6,8,10,12,14,-1,-1,-1,-1,-1,-1,-1,-1],"split_conditions":[9.4305867E-1,1.432167E2,1.6088493E0,2.520104E0,1.4180888E2,1.6787297E0,5.4502678E1,4.8299884E-5,-5.177708E-4,1.7691031E-3,-3.6632852E-4,1.0458723E-3,-3.6005318E-4,-1.0388352E-3,1.6707077E-4],"split_indices":[17,0,14,19,7,17,18,0,0,0,0,0,0,0,0],"split_type":[0,0,0,0,0,0,0,0,0,0,0,0,0,0,0],"sum_hessian":[9.38E2,8.6E2,7.8E1,7.12E2,1.48E2,2.5E1,5.3E1,6.65E2,4.7E1,1E0,1.47E2,2.2E1,3E0,5E0,4.8E1],"tree_param":{"num_deleted":"0","num_feature":"23","num_nodes":"15","size_leaf_vector":"1"}},{"base_weights":[7.3374606E-5,3.5610507E-4,-6.2210723E-3,1.6404667E-4,8.929449E-3,-9.887216E-3,5.3994646E-3,-6.064742E-4,3.6014902E-5,1.4099751E-3,-1.9481736E-4,-1.1475163E-3,3.3032335E-4,2.0461883E-3,-9.238752E-5],"categories":[],"categories_nodes":[],"categories_segments":[],"categories_sizes":[],"default_left":[0,0,0,0,0,0,0,0,0,0,0,0,0,0,0],"id":6,"left_children":[1,3,5,7,9,11,13,-1,-1,-1,-1,-1,-1,-1,-1],"loss_changes":[1.6145618E-3,1.427769E-3,1.7148851E-3,1.0404421E-3,1.0960399E-3,6.662775E-4,9.713521E-4,0E0,0E0,0E0,0E0,0E0,0E0,0E0,0E0],"parents":[2147483647,0,0,1,1,2,2,3,3,4,4,5,5,6,6],"right_children":[2,4,6,8,10,12,14,-1,-1,-1,-1,-1,-1,-1,-1],"split_conditions":[5.302454E0,1.468351E0,1.0678096E0,-1.278247E0,1.723698E0,7.310474E-2,1.1240728E0,-6.064742E-4,3.6014902E-5,1.4099751E-3,-1.9481736E-4,-1.1475163E-3,3.3032335E-4,2.0461883E-3,-9.238752E-5],"split_indices":[3,16,22,17,16,2,22,0,0,0,0,0,0,0,0],"split_type":[0,0,0,0,0,0,0,0,0,0,0,0,0,0,0],"sum_hessian":[9.05E2,8.67E2,3.8E1,8.49E2,1.8E1,2.9E1,9E0,2.5E1,8.24E2,1.2E1,6E0,2.6E1,3E0,2E0,7E0],"tree_param":{"num_deleted":"0","num_feature":"23","num_nodes":"15","size_leaf_vector":"1"}},{"base_weights":[1.5900891E-4,-2.0828618E-4,3.6798958E-3,4.478421E-3,-4.0451274E-4,7.886243E-3,1.0309523E-5,6.0803833E-4,-6.029037E-4,2.5661843E-4,-6.84222E-5,1.2670119E-3,1.6801711E-4,1.7865175E-4,-9.094045E-4],"categories":[],"categories_nodes":[],"categories_segments":[],"categories_sizes":[],"default_left":[0,0,0,0,0,0,0,0,0,0,0,0,0,0,0],"id":7,"left_children":[1,3,5,7,9,11,13,-1,-1,-1,-1,-1,-1,-1,-1],"loss_changes":[1.2047398E-3,7.780017E-4,1.3582475E-3,6.0896564E-4,6.7564123E-4,1.1959639E-3,7.924655E-4,0E0,0E0,0E0,0E0,0E0,0E0,0E0,0E0],"parents":[2147483647,0,0,1,1,2,2,3,3,4,4,5,5,6,6],"right_children":[2,4,6,8,10,12,14,-1,-1,-1,-1,-1,-1,-1,-1],"split_conditions":[9.4305867E-1,6.834626E1,3.010688E-3,1.0228416E0,-1.9097137E0,8.48463E-1,5.856989E0,6.0803833E-4,-6.029037E-4,2.5661843E-4,-6.84222E-5,1.2670119E-3,1.6801711E-4,1.7865175E-4,-9.094045E-4],"split_indices":[17,7,1,3,19,21,19,0,0,0,0,0,0,0,0],"split_type":[0,0,0,0,0,0,0,0,0,0,0,0,0,0,0],"sum_hessian":[9.3E2,8.43E2,8.7E1,3.3E1,8.1E2,4E1,4.7E1,2.9E1,4E0,6.9E1,7.41E2,2.2E1,1.8E1,4E1,7E0],"tree_param":{"num_deleted":"0","num_feature":"23","num_nodes":"15","size_leaf_vector":"1"}},{"base_weights":[2.3560158E-4,5.762205E-3,6.473003E-5,-7.0515036E-4,1.0656793E-2,-1.1005475E-2,1.7548322E-4,5.7695055E-4,-7.07907E-4,1.7549383E-3,3.3459582E-4,-1.5193146E-3,-1.9726001E-4,-5.297924E-4,3.1243024E-5],"categories":[],"categories_nodes":[],"categories_segments":[],"categories_sizes":[],"default_left":[0,0,0,0,0,0,0,0,0,0,0,0,0,0,0],"id":8,"left_children":[1,3,5,7,9,11,13,-1,-1,-1,-1,-1,-1,-1,-1],"loss_changes":[8.8163983E-4,8.938559E-4,1.1139683E-3,5.7733885E-4,7.475299E-4,3.1047035E-4,6.7551574E-4,0E0,0E0,0E0,0E0,0E0,0E0,0E0,0E0],"parents":[2147483647,0,0,1,1,2,2,3,3,4,4,5,5,6,6],"right_children":[2,4,6,8,10,12,14,-1,-1,-1,-1,-1,-1,-1,-1],"split_conditions":[-2.6290972E0,-9.594737E0,-1.5071751E0,-9.410391E-1,4.706974E-3,-1.4018866E0,2.8486788E-1,5.7695055E-4,-7.07907E-4,1.7549383E-3,3.3459582E-4,-1.5193146E-3,-1.9726001E-4,-5.297924E-4,3.1243024E-5],"split_indices":[19,5,17,16,1,19,14,0,0,0,0,0,0,0,0],"split_type":[0,0,0,0,0,0,0,0,0,0,0,0,0,0,0],"sum_hessian":[9.33E2,2.7E1,9.06E2,1.2E1,1.5E1,8E0,8.98E2,6E0,6E0,7E0,8E0,5E0,3E0,2.1E1,8.77E2],"tree_param":{"num_deleted":"0","num_feature":"23","num_nodes":"15","size_leaf_vector":"1"}},{"base_weights":[9.0085E-5,-1.1260004E-2,1.892223E-4,-2.763048E-3,-1.5805569E-3,4.0213426E-4,-4.137786E-3,-5.3145555E-5,-3.3297602E-4,1.46412E-5,7.839485E-4,-8.3508476E-4,1.6234936E-4],"categories":[],"categories_nodes":[],"categories_segments":[],"categories_sizes":[],"default_left":[0,0,0,0,0,0,0,0,0,0,0,0,0],"id":9,"left_children":[1,3,5,7,-1,9,11,-1,-1,-1,-1,-1,-1],"loss_changes":[1.0395808E-3,2.65316E-4,8.446277E-4,3.289064E-6,0E0,1.6592075E-3,1.0572803E-3,0E0,0E0,0E0,0E0,0E0,0E0],"parents":[2147483647,0,0,1,1,2,2,3,3,5,5,6,6],"right_children":[2,4,6,8,-1,10,12,-1,-1,-1,-1,-1,-1],"split_conditions":[-1.5617101E0,-6.625256E-2,5.302454E0,-7.117485E-2,-1.5805569E-3,1.3532116E0,6.692965E0,-5.3145555E-5,-3.3297602E-4,1.46412E-5,7.839485E-4,-8.3508476E-4,1.6234936E-4],"split_indices":[17,2,3,2,0,16,3,0,0,0,0,0,0],"split_type":[0,0,0,0,0,0,0,0,0,0,0,0,0],"sum_hessian":[9.21E2,7E0,9.14E2,3E0,4E0,8.72E2,4.2E1,1E0,2E0,8.44E2,2.8E1,2.4E1,1.8E1],"tree_param":{"num_deleted":"0","num_feature":"23","num_nodes":"13","size_leaf_vector":"1"}},{"base_weights":[1.3060102E-4,-1.7005329E-4,3.2272143E-3,-7.887386E-6,-9.142707E-3,1.1444605E-2,5.672934E-4,3.5464935E-5,-3.0343697E-4,-1.1385333E-3,3.622905E-4,1.6616291E-3,5.702655E-4,5.1315175E-4,-2.1854237E-4],"categories":[],"categories_nodes":[],"categories_segments":[],"categories_sizes":[],"default_left":[0,0,0,0,0,0,0,0,0,0,0,0,0,0,0],"id":10,"left_children":[1,3,5,7,9,11,13,-1,-1,-1,-1,-1,-1,-1,-1],"loss_changes":[8.626643E-4,1.2294523E-3,1.7858314E-3,9.1285846E-4,4.706754E-4,4.991542E-4,8.027477E-4,0E0,0E0,0E0,0E0,0E0,0E0,0E0,0E0],"parents":[2147483647,0,0,1,1,2,2,3,3,4,4,5,5,6,6],"right_children":[2,4,6,8,10,12,14,-1,-1,-1,-1,-1,-1,-1,-1],"split_conditions":[9.4305867E-1,8.8934964E-1,2.5397226E-2,1.4706465E2,7.310474E-2,6.55284E1,9.917799E0,3.5464935E-5,-3.0343697E-4,-1.1385333E-3,3.622905E-4,1.6616291E-3,5.702655E-4,5.1315175E-4,-2.1854237E-4],"split_indices":[17,17,2,10,2,18,5,0,0,0,0,0,0,0,0],"split_type":[0,0,0,0,0,0,0,0,0,0,0,0,0,0,0],"sum_hessian":[9.25E2,8.44E2,8.1E1,8.3E2,1.4E1,1.9E1,6.2E1,7.42E2,8.8E1,1.2E1,2E0,9E0,1E1,2.3E1,3.9E1],"tree_param":{"num_deleted":"0","num_feature":"23","num_nodes":"15","size_leaf_vector":"1"}},{"base_weights":[5.8648355E-5,8.6440385E-4,-1.1217367E-3,-5.559396E-4,2.4874522E-3,3.0745408E-3,-1.880071E-3,8.085392E-6,-4.697119E-4,9.5424686E-5,4.8831245E-4,1.0825284E-3,-3.2040956E-5,5.5222766E-4,-2.3320728E-4],"categories":[],"categories_nodes":[],"categories_segments":[],"categories_sizes":[],"default_left":[0,0,0,0,0,0,0,0,0,0,0,0,0,0,0],"id":11,"left_children":[1,3,5,7,9,11,13,-1,-1,-1,-1,-1,-1,-1,-1],"loss_changes":[8.9785864E-4,1.2946484E-3,1.2245555E-3,7.9150265E-4,9.5768156E-4,1.5559583E-3,1.1002874E-3,0E0,0E0,0E0,0E0,0E0,0E0,0E0,0E0],"parents":[2147483647,0,0,1,1,2,2,3,3,4,4,5,5,6,6],"right_children":[2,4,6,8,10,12,14,-1,-1,-1,-1,-1,-1,-1,-1],"split_conditions":[1.4365085E0,1.1833668E0,1.8227913E0,1.970656E0,1.3568837E-2,-8.449134E-2,3.396698E1,8.085392E-6,-4.697119E-4,9.5424686E-5,4.8831245E-4,1.0825284E-3,-3.2040956E-5,5.5222766E-4,-2.3320728E-4],"split_indices":[14,15,15,5,2,17,18,0,0,0,0,0,0,0,0],"split_type":[0,0,0,0,0,0,0,0,0,0,0,0,0,0,0],"sum_hessian":[9.42E2,5.6E2,3.82E2,2.99E2,2.61E2,5.8E1,3.24E2,2.6E2,3.9E1,1.6E2,1.01E2,1.7E1,4.1E1,1.8E1,3.06E2],"tree_param":{"num_deleted":"0","num_feature":"23","num_nodes":"15","size_leaf_vector":"1"}},{"base_weights":[1.8544587E-4,-2.4373443E-3,5.536103E-4,1.6495837E-3,-3.080286E-3,-6.9220285E-3,6.991563E-4,4.1533142E-4,-4.758339E-4,-1.1044597E-3,1.7896848E-4,1.1653024E-3,5.765835E-5],"categories":[],"categories_nodes":[],"categories_segments":[],"categories_sizes":[],"default_left":[0,0,0,0,0,0,0,0,0,0,0,0,0],"id":12,"left_children":[1,3,5,-1,7,9,11,-1,-1,-1,-1,-1,-1],"loss_changes":[9.177209E-4,1.4750453E-3,9.111846E-4,0E0,1.4035363E-3,5.9440045E-4,1.0915657E-3,0E0,0E0,0E0,0E0,0E0,0E0],"parents":[2147483647,0,0,1,1,2,2,4,4,5,5,6,6],"right_children":[2,4,6,-1,8,10,12,-1,-1,-1,-1,-1,-1],"split_conditions":[-2.7649167E0,-1.0940355E1,-1.2189687E0,1.6495837E-3,-1.7430431E0,-1.0625672E0,-4.4455513E-2,4.1533142E-4,-4.758339E-4,-1.1044597E-3,1.7896848E-4,1.1653024E-3,5.765835E-5],"split_indices":[3,4,17,0,19,19,2,0,0,0,0,0,0],"split_type":[0,0,0,0,0,0,0,0,0,0,0,0,0],"sum_hessian":[9.48E2,1.16E2,8.32E2,3E0,1.13E2,1.5E1,8.17E2,2.1E1,9.2E1,1E1,5E0,8E0,8.09E2],"tree_param":{"num_deleted":"0","num_feature":"23","num_nodes":"13","size_leaf_vector":"1"}},{"base_weights":[3.352061E-5,-4.7984626E-4,3.0055975E-3,-8.075682E-3,-2.3420011E-4,-2.198134E-3,4.533764E-3,-1.0412146E-3,6.7937834E-4,-3.463195E-4,8.126643E-6,2.246283E-4,-7.3848927E-4,6.313588E-4,-3.0556865E-4],"categories":[],"categories_nodes":[],"categories_segments":[],"categories_sizes":[],"default_left":[0,0,0,0,0,0,0,0,0,0,0,0,0,0,0],"id":13,"left_children":[1,3,5,7,9,11,13,-1,-1,-1,-1,-1,-1,-1,-1],"loss_changes":[1.429559E-3,1.488953E-3,1.1073652E-3,9.3928643E-4,7.8972726E-4,7.5425627E-4,1.4646361E-3,0E0,0E0,0E0,0E0,0E0,0E0,0E0,0E0],"parents":[2147483647,0,0,1,1,2,2,3,3,4,4,5,5,6,6],"right_children":[2,4,6,8,10,12,14,-1,-1,-1,-1,-1,-1,-1,-1],"split_conditions":[3.472663E0,-1.3823837E0,-1.2189687E0,-1.435853E-1,-1.5842654E-2,-2.494241E0,5.4135246E0,-1.0412146E-3,6.7937834E-4,-3.463195E-4,8.126643E-6,2.246283E-4,-7.3848927E-4,6.313588E-4,-3.0556865E-4],"split_indices":[15,16,17,21,1,3,3,0,0,0,0,0,0,0,0],"split_type":[0,0,0,0,0,0,0,0,0,0,0,0,0,0,0],"sum_hessian":[9.35E2,7.98E2,1.37E2,2.4E1,7.74E2,3.1E1,1.06E2,2.1E1,3E0,6.8E1,7.06E2,1.7E1,1.4E1,8.6E1,2E1],"tree_param":{"num_deleted":"0","num_feature":"23","num_nodes":"15","size_leaf_vector":"1"}},{"base_weights":[4.3926862E-5,-6.434382E-5,8.503425E-3,6.141887E-3,-1.8556837E-4,1.1329152E-2,1.9682571E-5,-2.4163474E-4,7.362689E-4,-1.0814433E-3,-1.15744415E-5,2.816057E-4,1.2041281E-3,6.153787E-4,-4.076281E-4],"categories":[],"categories_nodes":[],"categories_segments":[],"categories_sizes":[],"default_left":[0,0,0,0,0,0,0,0,0,0,0,0,0,0,0],"id":14,"left_children":[1,3,5,7,9,11,13,-1,-1,-1,-1,-1,-1,-1,-1],"loss_changes":[8.6975103E-4,7.0684176E-4,2.8744986E-4,2.0585302E-4,6.822678E-4,2.0652893E-5,1.2558485E-4,0E0,0E0,0E0,0E0,0E0,0E0,0E0,0E0],"parents":[2147483647,0,0,1,1,2,2,3,3,4,4,5,5,6,6],"right_children":[2,4,6,8,10,12,14,-1,-1,-1,-1,-1,-1,-1,-1],"split_conditions":[1.498618E1,3.09627E1,6.127615E-2,-6.9616474E-2,-1.5617101E0,1.0420717E0,1.5675044E2,-2.4163474E-4,7.362689E-4,-1.0814433E-3,-1.15744415E-5,2.816057E-4,1.2041281E-3,6.153787E-4,-4.076281E-4],"split_indices":[5,18,2,2,17,17,0,0,0,0,0,0,0,0,0],"split_type":[0,0,0,0,0,0,0,0,0,0,0,0,0,0,0],"sum_hessian":[9.48E2,9.37E2,1.1E1,1.7E1,9.2E2,8E0,3E0,2E0,1.5E1,5E0,9.15E2,1E0,7E0,1E0,2E0],"tree_param":{"num_deleted":"0","num_feature":"23","num_nodes":"15","size_leaf_vector":"1"}},{"base_weights":[-7.4393916E-5,-3.166999E-4,2.7393256E-3,1.9574158E-4,-2.779819E-3,1.46992635E-2,1.4678715E-3,-2.207455E-5,4.7252473E-4,-3.9470987E-4,3.735704E-4,1.7707403E-3,4.7859453E-4,4.9163116E-4,-1.7339725E-4],"categories":[],"categories_nodes":[],"categories_segments":[],"categories_sizes":[],"default_left":[0,0,0,0,0,0,0,0,0,0,0,0,0,0,0],"id":15,"left_children":[1,3,5,7,9,11,13,-1,-1,-1,-1,-1,-1,-1,-1],"loss_changes":[6.3628756E-4,1.0847778E-3,1.1037055E-3,1.3442172E-3,1.1403498E-3,1.239978E-4,7.5933756E-4,0E0,0E0,0E0,0E0,0E0,0E0,0E0,0E0],"parents":[2147483647,0,0,1,1,2,2,3,3,4,4,5,5,6,6],"right_children":[2,4,6,8,10,12,14,-1,-1,-1,-1,-1,-1,-1,-1],"split_conditions":[9.682741E-1,1.432167E2,1.0080223E0,1.3993419E2,1.6659955E2,1.6684553E-3,9.198338E-1,-2.207455E-5,4.7252473E-4,-3.9470987E-4,3.735704E-4,1.7707403E-3,4.7859453E-4,4.9163116E-4,-1.7339725E-4],"split_indices":[17,0,17,9,0,1,21,0,0,0,0,0,0,0,0],"split_type":[0,0,0,0,0,0,0,0,0,0,0,0,0,0,0],"sum_hessian":[9.31E2,8.58E2,7.3E1,7.11E2,1.47E2,6E0,6.7E1,6.52E2,5.9E1,1.25E2,2.2E1,4E0,2E0,3.2E1,3.5E1],"tree_param":{"num_deleted":"0","num_feature":"23","num_nodes":"15","size_leaf_vector":"1"}},{"base_weights":[-2.7829973E-4,-2.1241647E-3,2.0510193E-4,7.935747E-3,-2.5944575E-3,3.7170616E-3,-3.230839E-4,8.659167E-5,1.3418428E-3,-7.049266E-4,-1.6699458E-4,2.9112748E-4,1.5587247E-3,-1.356348E-3,-1.5836102E-5],"categories":[],"categories_nodes":[],"categories_segments":[],"categories_sizes":[],"default_left":[0,0,0,0,0,0,0,0,0,0,0,0,0,0,0],"id":16,"left_children":[1,3,5,7,9,11,13,-1,-1,-1,-1,-1,-1,-1,-1],"loss_changes":[8.427614E-4,9.478853E-4,1.3905715E-3,3.3723534E-4,7.6251035E-4,8.9197536E-4,1.4198616E-3,0E0,0E0,0E0,0E0,0E0,0E0,0E0,0E0],"parents":[2147483647,0,0,1,1,2,2,3,3,4,4,5,5,6,6],"right_children":[2,4,6,8,10,12,14,-1,-1,-1,-1,-1,-1,-1,-1],"split_conditions":[-1.8705226E-2,-2.4385195E0,-8.3903335E-3,-2.198468E-2,-4.897208E0,2.9738408E-1,-8.812417E-1,8.659167E-5,1.3418428E-3,-7.049266E-4,-1.6699458E-4,2.9112748E-4,1.5587247E-3,-1.356348E-3,-1.5836102E-5],"split_indices":[2,16,2,1,3,16,16,0,0,0,0,0,0,0,0],"split_type":[0,0,0,0,0,0,0,0,0,0,0,0,0,0,0],"sum_hessian":[9.43E2,1.95E2,7.48E2,8E0,1.87E2,9.7E1,6.51E2,4E0,4E0,3.1E1,1.56E2,9.2E1,5E0,7E0,6.44E2],"tree_param":{"num_deleted":"0","num_feature":"23","num_nodes":"15","size_leaf_vector":"1"}},{"base_weights":[-9.6550875E-6,6.2577994E-5,-1.13366E-2,-4.9110875E-4,1.9121647E-3,-3.2839642E-4,-1.8294583E-3,-3.6826237E-5,-8.4314786E-4,9.201405E-4,1.20659824E-4],"categories":[],"categories_nodes":[],"categories_segments":[],"categories_sizes":[],"default_left":[0,0,0,0,0,0,0,0,0,0,0],"id":17,"left_children":[1,3,5,7,9,-1,-1,-1,-1,-1,-1],"loss_changes":[7.747078E-4,9.646093E-4,2.7610193E-4,7.0409314E-4,1.1049381E-3,0E0,0E0,0E0,0E0,0E0,0E0],"parents":[2147483647,0,0,1,1,2,2,3,3,4,4],"right_children":[2,4,6,8,10,-1,-1,-1,-1,-1,-1],"split_conditions":[8.5162056E1,2.5683863E-2,1.2440748E2,3.3466554E0,8.074977E-2,-3.2839642E-4,-1.8294583E-3,-3.6826237E-5,-8.4314786E-4,9.201405E-4,1.20659824E-4],"split_indices":[18,6,7,4,17,0,0,0,0,0,0],"split_type":[0,0,0,0,0,0,0,0,0,0,0],"sum_hessian":[9.45E2,9.4E2,5E0,7.24E2,2.16E2,3E0,2E0,7.14E2,1E1,1.8E1,1.98E2],"tree_param":{"num_deleted":"0","num_feature":"23","num_nodes":"11","size_leaf_vector":"1"}},{"base_weights":[5.17307E-7,2.287963E-4,-5.823873E-3,1.1390288E-4,1.1501227E-2,-1.2951972E-2,-2.858301E-3,2.9329127E-5,-4.2510522E-4,1.9651453E-4,1.5941743E-3,-1.4331964E-3,-2.6602473E-5,-8.1601087E-4,9.653356E-5],"categories":[],"categories_nodes":[],"categories_segments":[],"categories_sizes":[],"default_left":[0,0,0,0,0,0,0,0,0,0,0,0,0,0,0],"id":18,"left_children":[1,3,5,7,9,11,13,-1,-1,-1,-1,-1,-1,-1,-1],"loss_changes":[1.2338586E-3,1.1552392E-3,7.028405E-4,6.9422147E-4,3.4977833E-4,1.712523E-4,5.34954E-4,0E0,0E0,0E0,0E0,0E0,0E0,0E0,0E0],"parents":[2147483647,0,0,1,1,2,2,3,3,4,4,5,5,6,6],"right_children":[2,4,6,8,10,12,14,-1,-1,-1,-1,-1,-1,-1,-1],"split_conditions":[5.4135246E0,5.2446837E0,2.4027753E0,1.0513464E0,2.1130915E0,6.4130316E0,1.4246315E2,2.9329127E-5,-4.2510522E-4,1.9651453E-4,1.5941743E-3,-1.4331964E-3,-2.6602473E-5,-8.1601087E-4,9.653356E-5],"split_indices":[3,3,15,22,20,4,12,0,0,0,0,0,0,0,0],"split_type":[0,0,0,0,0,0,0,0,0,0,0,0,0,0,0],"sum_hessian":[9.26E2,8.92E2,3.4E1,8.84E2,8E0,9E0,2.5E1,8.5E2,3.4E1,3E0,5E0,8E0,1E0,1E1,1.5E1],"tree_param":{"num_deleted":"0","num_feature":"23","num_nodes":"15","size_leaf_vector":"1"}},{"base_weights":[1.1256353E-4,-1.5485982E-4,2.971553E-3,2.292199E-4,-2.9548644E-3,1.2873861E-2,1.5144869E-3,-7.868351E-6,4.328217E-4,-1.2589832E-4,-8.414021E-4,1.8115044E-3,4.0096696E-4,2.8514012E-4,-4.5667074E-4],"categories":[],"categories_nodes":[],"categories_segments":[],"categories_sizes":[],"default_left":[0,0,0,0,0,0,0,0,0,0,0,0,0,0,0],"id":19,"left_children":[1,3,5,7,9,11,13,-1,-1,-1,-1,-1,-1,-1,-1],"loss_changes":[7.061496E-4,9.0941146E-4,1.1203398E-3,9.393393E-4,9.337311E-4,3.9195316E-4,5.8212405E-4,0E0,0E0,0E0,0E0,0E0,0E0,0E0,0E0],"parents":[2147483647,0,0,1,1,2,2,3,3,4,4,5,5,6,6],"right_children":[2,4,6,8,10,12,14,-1,-1,-1,-1,-1,-1,-1,-1],"split_conditions":[9.682741E-1,5.7530415E-1,1.0080223E0,3.9652104E0,1.2197236E-2,1.6684553E-3,1.5861769E0,-7.868351E-6,4.328217E-4,-1.2589832E-4,-8.414021E-4,1.8115044E-3,4.0096696E-4,2.8514012E-4,-4.5667074E-4],"split_indices":[17,17,17,4,1,1,17,0,0,0,0,0,0,0,0],"split_type":[0,0,0,0,0,0,0,0,0,0,0,0,0,0,0],"sum_hessian":[9.22E2,8.44E2,7.8E1,7.43E2,1.01E2,9E0,6.9E1,6.92E2,5.1E1,7.8E1,2.3E1,5E0,4E0,5.7E1,1.2E1],"tree_param":{"num_deleted":"0","num_feature":"23","num_nodes":"15","size_leaf_vector":"1"}},{"base_weights":[-1.7577666E-4,-4.1287224E-4,3.0974268E-3,-2.28974E-5,-4.0570074E-3,4.514776E-3,-3.3025385E-3,-1.1963595E-5,1.5111592E-3,-1.1148357E-3,-2.3538391E-4,8.714685E-5,8.41469E-4,1.7380265E-4,-6.040074E-4],"categories":[],"categories_nodes":[],"categories_segments":[],"categories_sizes":[],"default_left":[0,0,0,0,0,0,0,0,0,0,0,0,0,0,0],"id":20,"left_children":[1,3,5,7,9,11,13,-1,-1,-1,-1,-1,-1,-1,-1],"loss_changes":[7.237926E-4,1.2348612E-3,5.863823E-4,1.1525815E-3,9.882904E-4,7.3151325E-4,1.7608251E-4,0E0,0E0,0E0,0E0,0E0,0E0,0E0,0E0],"parents":[2147483647,0,0,1,1,2,2,3,3,4,4,5,5,6,6],"right_children":[2,4,6,8,10,12,14,-1,-1,-1,-1,-1,-1,-1,-1],"split_conditions":[7.317508E1,6.682742E1,6.127615E-2,6.6672035E1,2.6950166E-1,9.337261E-1,7.54453E1,-1.1963595E-5,1.5111592E-3,-1.1148357E-3,-2.3538391E-4,8.714685E-5,8.41469E-4,1.7380265E-4,-6.040074E-4],"split_indices":[18,18,2,18,17,16,18,0,0,0,0,0,0,0,0],"split_type":[0,0,0,0,0,0,0,0,0,0,0,0,0,0,0],"sum_hessian":[9.3E2,8.68E2,6.2E1,7.85E2,8.3E1,5.1E1,1.1E1,7.81E2,4E0,1.5E1,6.8E1,2.7E1,2.4E1,4E0,7E0],"tree_param":{"num_deleted":"0","num_feature":"23","num_nodes":"15","size_leaf_vector":"1"}},{"base_weights":[-1.6962773E-4,7.813024E-4,-1.3724763E-3,-4.1349756E-4,2.3353216E-3,-2.2873E-3,5.083756E-4,3.6725015E-4,-1.4419609E-4,-4.351603E-4,3.1972548E-4,-1.5907054E-4,-7.6963904E-4,-2.2466372E-4,3.3809137E-4],"categories":[],"categories_nodes":[],"categories_segments":[],"categories_sizes":[],"default_left":[0,0,0,0,0,0,0,0,0,0,0,0,0,0,0],"id":21,"left_children":[1,3,5,7,9,11,13,-1,-1,-1,-1,-1,-1,-1,-1],"loss_changes":[1.0545353E-3,9.571878E-4,7.0146646E-4,1.2323674E-3,1.3049779E-3,1.0201739E-3,1.0680554E-3,0E0,0E0,0E0,0E0,0E0,0E0,0E0,0E0],"parents":[2147483647,0,0,1,1,2,2,3,3,4,4,5,5,6,6],"right_children":[2,4,6,8,10,12,14,-1,-1,-1,-1,-1,-1,-1,-1],"split_conditions":[1.4209665E0,9.969595E1,2.4301841E0,6.905771E1,-9.4424E-3,1.5470668E2,1.837702E0,3.6725015E-4,-1.4419609E-4,-4.351603E-4,3.1972548E-4,-1.5907054E-4,-7.6963904E-4,-2.2466372E-4,3.3809137E-4],"split_indices":[14,7,14,7,1,0,5,0,0,0,0,0,0,0,0],"split_type":[0,0,0,0,0,0,0,0,0,0,0,0,0,0,0],"sum_hessian":[9.2E2,5.14E2,4.06E2,2.91E2,2.23E2,2.73E2,1.33E2,5.8E1,2.33E2,2.5E1,1.98E2,2.43E2,3E1,6.8E1,6.5E1],"tree_param":{"num_deleted":"0","num_feature":"23","num_nodes":"15","size_leaf_vector":"1"}},{"base_weights":[4.590353E-5,3.55196E-3,-2.2257653E-4,9.4189553E-4,1.0866148E-2,1.4059494E-3,-2.8984097E-4,6.161003E-4,-7.310305E-5,-6.132913E-4,1.4946869E-3,-6.4525864E-4,-1.3281011E-5],"categories":[],"categories_nodes":[],"categories_segments":[],"categories_sizes":[],"default_left":[0,0,0,0,0,0,0,0,0,0,0,0,0],"id":22,"left_children":[1,3,5,7,9,-1,11,-1,-1,-1,-1,-1,-1],"loss_changes":[8.6020323E-4,1.230648E-3,8.196882E-4,4.3233173E-4,1.270931E-3,0E0,8.17852E-4,0E0,0E0,0E0,0E0,0E0,0E0],"parents":[2147483647,0,0,1,1,2,2,3,3,4,4,6,6],"right_children":[2,4,6,8,10,-1,12,-1,-1,-1,-1,-1,-1],"split_conditions":[-1.9362855E0,1.3032587E2,-1.0940355E1,1.1465296E0,-9.8111266E-1,1.4059494E-3,-1.7395669E0,6.161003E-4,-7.310305E-5,-6.132913E-4,1.4946869E-3,-6.4525864E-4,-1.3281011E-5],"split_indices":[19,0,4,14,21,0,16,0,0,0,0,0,0],"split_type":[0,0,0,0,0,0,0,0,0,0,0,0,0],"sum_hessian":[9.12E2,6.4E1,8.48E2,4.8E1,1.6E1,3E0,8.45E2,1.1E1,3.7E1,3E0,1.3E1,2E1,8.25E2],"tree_param":{"num_deleted":"0","num_feature":"23","num_nodes":"13","size_leaf_vector":"1"}},{"base_weights":[1.5959858E-4,5.8283284E-3,4.8635793E-5,1.6924419E-3,2.4808156E-3,-1.0821376E-2,1.07852175E-4,-2.4438012E-4,8.458063E-4,-8.2337785E-5,-1.3115031E-3,3.3237576E-4,-1.0915987E-5],"categories":[],"categories_nodes":[],"categories_segments":[],"categories_sizes":[],"default_left":[0,0,0,0,0,0,0,0,0,0,0,0,0],"id":23,"left_children":[1,3,5,-1,7,9,11,-1,-1,-1,-1,-1,-1],"loss_changes":[5.897355E-4,6.266112E-4,5.939989E-4,0E0,4.6220465E-4,1.0386115E-4,6.403281E-4,0E0,0E0,0E0,0E0,0E0,0E0],"parents":[2147483647,0,0,1,1,2,2,4,4,5,5,6,6],"right_children":[2,4,6,-1,8,10,12,-1,-1,-1,-1,-1,-1],"split_conditions":[-2.8859918E0,1.1394504E0,-1.5617101E0,1.6924419E-3,-3.3554604E0,1.1036323E2,-8.189923E-1,-2.4438012E-4,8.458063E-4,-8.2337785E-5,-1.3115031E-3,3.3237576E-4,-1.0915987E-5],"split_indices":[19,14,17,0,19,0,17,0,0,0,0,0,0],"split_type":[0,0,0,0,0,0,0,0,0,0,0,0,0],"sum_hessian":[9.37E2,1.7E1,9.2E2,3E0,1.4E1,4E0,9.16E2,8E0,6E0,1E0,3E0,5.7E1,8.59E2],"tree_param":{"num_deleted":"0","num_feature":"23","num_nodes":"13","size_leaf_vector":"1"}},{"base_weights":[1.3985638E-4,2.0358253E-4,-1.2021574E-2,-1.5888271E-3,6.6739856E-4,-3.1049814E-4,-1.6930978E-3,-8.685604E-5,-8.2529674E-4,3.8393828E-4,1.6757902E-5],"categories":[],"categories_nodes":[],"categories_segments":[],"categories_sizes":[],"default_left":[0,0,0,0,0,0,0,0,0,0,0],"id":24,"left_children":[1,3,5,7,9,-1,-1,-1,-1,-1,-1],"loss_changes":[7.4334856E-4,7.92504E-4,1.663054E-4,9.3362376E-4,1.1995193E-3,0E0,0E0,0E0,0E0,0E0,0E0],"parents":[2147483647,0,0,1,1,2,2,3,3,4,4],"right_children":[2,4,6,8,10,-1,-1,-1,-1,-1,-1],"split_conditions":[8.5162056E1,-1.8705226E-2,1.2440748E2,8.369433E-2,-8.3903335E-3,-3.1049814E-4,-1.6930978E-3,-8.685604E-5,-8.2529674E-4,3.8393828E-4,1.6757902E-5],"split_indices":[18,2,7,22,2,0,0,0,0,0,0],"split_type":[0,0,0,0,0,0,0,0,0,0,0],"sum_hessian":[9.55E2,9.51E2,4E0,1.95E2,7.56E2,2E0,2E0,1.77E2,1.8E1,1.02E2,6.54E2],"tree_param":{"num_deleted":"0","num_feature":"23","num_nodes":"11","size_leaf_vector":"1"}},{"base_weights":[-9.8759105E-5,8.171398E-5,-4.07121E-3,7.256275E-3,-1.733941E-5,-8.063451E-3,2.4211176E-3,9.820138E-4,-3.7086912E-4,-4.12724E-5,1.8680531E-4,-1.348354E-4,-1.1756421E-3,1.7695809E-3,2.2308426E-5],"categories":[],"categories_nodes":[],"categories_segments":[],"categories_sizes":[],"default_left":[0,0,0,0,0,0,0,0,0,0,0,0,0,0,0],"id":25,"left_children":[1,3,5,7,9,11,13,-1,-1,-1,-1,-1,-1,-1,-1],"loss_changes":[6.598995E-4,6.2622136E-4,1.05628E-3,3.7377182E-4,6.4931693E-4,6.041145E-4,5.3324085E-4,0E0,0E0,0E0,0E0,0E0,0E0,0E0,0E0],"parents":[2147483647,0,0,1,1,2,2,3,3,4,4,5,5,6,6],"right_children":[2,4,6,8,10,12,14,-1,-1,-1,-1,-1,-1,-1,-1],"split_conditions":[5.302454E0,-2.2186184E0,6.692965E0,-4.809034E0,2.8730493E-2,1.4034889E2,-9.527352E-2,9.820138E-4,-3.7086912E-4,-4.12724E-5,1.8680531E-4,-1.348354E-4,-1.1756421E-3,1.7695809E-3,2.2308426E-5],"split_indices":[3,16,3,5,2,7,17,0,0,0,0,0,0,0,0],"split_type":[0,0,0,0,0,0,0,0,0,0,0,0,0,0,0],"sum_hessian":[9.19E2,8.8E2,3.9E1,1.1E1,8.69E2,2.4E1,1.5E1,9E0,2E0,7.19E2,1.5E2,9E0,1.5E1,1E0,1.4E1],"tree_param":{"num_deleted":"0","num_feature":"23","num_nodes":"15","size_leaf_vector":"1"}},{"base_weights":[1.7186928E-4,-2.2442848E-3,4.8617175E-4,-1.7185466E-3,-1.53524075E-2,1.3943386E-2,3.7013416E-4,4.5440617E-4,-2.9945053E-4,-3.0100366E-4,-1.8463185E-3,1.669232E-3,-1.2751078E-4,6.857013E-4,1.9015748E-5],"categories":[],"categories_nodes":[],"categories_segments":[],"categories_sizes":[],"default_left":[0,0,0,0,0,0,0,0,0,0,0,0,0,0,0],"id":26,"left_children":[1,3,5,7,9,11,13,-1,-1,-1,-1,-1,-1,-1,-1],"loss_changes":[7.0581725E-4,7.110003E-4,1.2784272E-3,8.446534E-4,9.8002725E-5,3.1412707E-4,9.5136545E-4,0E0,0E0,0E0,0E0,0E0,0E0,0E0,0E0],"parents":[2147483647,0,0,1,1,2,2,3,3,4,4,5,5,6,6],"right_children":[2,4,6,8,10,12,14,-1,-1,-1,-1,-1,-1,-1,-1],"split_conditions":[-7.5020987E-1,1.7020065E-2,-2.9749539E-2,-1.6229664E0,-6.9616474E-2,1.4242253E2,-2.3502882E0,4.5440617E-4,-2.9945053E-4,-3.0100366E-4,-1.8463185E-3,1.669232E-3,-1.2751078E-4,6.857013E-4,1.9015748E-5],"split_indices":[21,1,1,21,2,0,20,0,0,0,0,0,0,0,0],"split_type":[0,0,0,0,0,0,0,0,0,0,0,0,0,0,0],"sum_hessian":[9.27E2,1.06E2,8.21E2,1.03E2,3E0,6E0,8.15E2,1.7E1,8.6E1,1E0,2E0,5E0,1E0,2.1E1,7.94E2],"tree_param":{"num_deleted":"0","num_feature":"23","num_nodes":"15","size_leaf_vector":"1"}},{"base_weights":[1.2816815E-4,-3.5140018E-3,3.1690733E-4,2.4027011E-5,-1.1602641E-2,1.5881959E-3,-2.907079E-4,-1.2045961E-3,2.104231E-4,-1.330864E-3,-9.110955E-5,1.11751164E-4,1.2281585E-3,-5.1111355E-4,-3.738002E-6],"categories":[],"categories_nodes":[],"categories_segments":[],"categories_sizes":[],"default_left":[0,0,0,0,0,0,0,0,0,0,0,0,0,0,0],"id":27,"left_children":[1,3,5,7,9,11,13,-1,-1,-1,-1,-1,-1,-1,-1],"loss_changes":[6.417892E-4,1.3166994E-3,6.856286E-4,8.539126E-4,2.4323154E-4,1.4308065E-3,7.3371927E-4,0E0,0E0,0E0,0E0,0E0,0E0,0E0,0E0],"parents":[2147483647,0,0,1,1,2,2,3,3,4,4,5,5,6,6],"right_children":[2,4,6,8,10,12,14,-1,-1,-1,-1,-1,-1,-1,-1],"split_conditions":[-1.1737256E0,-1.6204301E0,-7.1565056E-1,3.0103276E0,-4.6107483E0,2.4258949E-1,-2.367298E-1,-1.2045961E-3,2.104231E-4,-1.330864E-3,-9.110955E-5,1.11751164E-4,1.2281585E-3,-5.1111355E-4,-3.738002E-6],"split_indices":[21,3,5,15,5,22,5,0,0,0,0,0,0,0,0],"split_type":[0,0,0,0,0,0,0,0,0,0,0,0,0,0,0],"sum_hessian":[9.31E2,4.5E1,8.86E2,3.2E1,1.3E1,2.86E2,6E2,4E0,2.8E1,1.1E1,2E0,2.75E2,1.1E1,2.9E1,5.71E2],"tree_param":{"num_deleted":"0","num_feature":"23","num_nodes":"15","size_leaf_vector":"1"}},{"base_weights":[-2.4988744E-4,2.9805934E-3,-4.7902824E-4,2.8377623E-4,9.068981E-3,3.190267E-4,-1.5249442E-3,-7.8719015E-5,8.794752E-4,1.2763597E-3,-1.063284E-4,-1.2831531E-3,4.7907623E-5,-3.5476006E-4,-1.1853024E-5],"categories":[],"categories_nodes":[],"categories_segments":[],"categories_sizes":[],"default_left":[0,0,0,0,0,0,0,0,0,0,0,0,0,0,0],"id":28,"left_children":[1,3,5,7,9,11,13,-1,-1,-1,-1,-1,-1,-1,-1],"loss_changes":[6.928073E-4,1.015421E-3,7.291782E-4,4.0798174E-4,7.2483276E-4,1.0500987E-3,1.0748734E-3,0E0,0E0,0E0,0E0,0E0,0E0,0E0,0E0],"parents":[2147483647,0,0,1,1,2,2,3,3,4,4,5,5,6,6],"right_children":[2,4,6,8,10,12,14,-1,-1,-1,-1,-1,-1,-1,-1],"split_conditions":[-1.9362855E0,1.2812526E2,1.9504019E0,-2.1701863E0,1.4307297E2,-1.761641E0,1.3555664E2,-7.8719015E-5,8.794752E-4,1.2763597E-3,-1.063284E-4,-1.2831531E-3,4.7907623E-5,-3.5476006E-4,-1.1853024E-5],"split_indices":[19,7,15,19,0,19,7,0,0,0,0,0,0,0,0],"split_type":[0,0,0,0,0,0,0,0,0,0,0,0,0,0,0],"sum_hessian":[9.33E2,6.1E1,8.72E2,4.3E1,1.8E1,4.95E2,3.77E2,3.9E1,4E0,1.3E1,5E0,5E0,4.9E2,1.54E2,2.23E2],"tree_param":{"num_deleted":"0","num_feature":"23","num_nodes":"15","size_leaf_vector":"1"}},{"base_weights":[1.7107582E-4,-1.9444142E-3,6.8060344E-4,3.4455088E-4,-3.7790318E-3,3.1020392E-3,1.3654892E-4,1.6469111E-4,-1.025732E-3,-1.1941222E-3,-1.8417065E-4,5.656054E-4,1.0049013E-5,-7.2007114E-4,4.2283147E-5],"categories":[],"categories_nodes":[],"categories_segments":[],"categories_sizes":[],"default_left":[0,0,0,0,0,0,0,0,0,0,0,0,0,0,0],"id":29,"left_children":[1,3,5,7,9,11,13,-1,-1,-1,-1,-1,-1,-1,-1],"loss_changes":[9.994594E-4,7.571896E-4,9.836691E-4,1.1352968E-3,1.5592895E-3,1.0496739E-3,1.2864682E-3,0E0,0E0,0E0,0E0,0E0,0E0,0E0,0E0],"parents":[2147483647,0,0,1,1,2,2,3,3,4,4,5,5,6,6],"right_children":[2,4,6,8,10,12,14,-1,-1,-1,-1,-1,-1,-1,-1],"split_conditions":[-5.337389E-1,-5.6155634E0,-8.3903335E-3,-3.8472548E-1,-1.0331678E0,-8.24262E-2,-4.6107483E0,1.6469111E-4,-1.025732E-3,-1.1941222E-3,-1.8417065E-4,5.656054E-4,1.0049013E-5,-7.2007114E-4,4.2283147E-5],"split_indices":[22,5,2,3,16,17,5,0,0,0,0,0,0,0,0],"split_type":[0,0,0,0,0,0,0,0,0,0,0,0,0,0,0],"sum_hessian":[9.25E2,1.79E2,7.46E2,8E1,9.9E1,1.36E2,6.1E2,7.2E1,8E0,1.8E1,8.1E1,7.3E1,6.3E1,2.2E1,5.88E2],"tree_param":{"num_deleted":"0","num_feature":"23","num_nodes":"15","size_leaf_vector":"1"}},{"base_weights":[1.6068135E-4,7.938986E-3,5.882912E-5,1.108502E-2,-5.194122E-3,-8.629218E-3,1.4469022E-4,2.1767895E-5,1.5711355E-3,-1.2246984E-4,-6.566485E-4,-1.4616736E-3,-9.1585636E-5,3.68972E-4,-4.3998866E-6],"categories":[],"categories_nodes":[],"categories_segments":[],"categories_sizes":[],"default_left":[0,0,0,0,0,0,0,0,0,0,0,0,0,0,0],"id":30,"left_children":[1,3,5,7,9,11,13,-1,-1,-1,-1,-1,-1,-1,-1],"loss_changes":[7.355217E-4,5.533833E-4,6.8604463E-4,4.9933954E-4,8.300514E-6,4.0226826E-4,6.0886896E-4,0E0,0E0,0E0,0E0,0E0,0E0,0E0,0E0],"parents":[2147483647,0,0,1,1,2,2,3,3,4,4,5,5,6,6],"right_children":[2,4,6,8,10,12,14,-1,-1,-1,-1,-1,-1,-1,-1],"split_conditions":[-2.9749539E-2,4.5234E-3,-7.7122164E0,-5.2921133E0,-3.1180533E-2,3.183968E0,-4.366919E0,2.1767895E-5,1.5711355E-3,-1.2246984E-4,-6.566485E-4,-1.4616736E-3,-9.1585636E-5,3.68972E-4,-4.3998866E-6],"split_indices":[1,2,3,3,1,15,3,0,0,0,0,0,0,0,0],"split_type":[0,0,0,0,0,0,0,0,0,0,0,0,0,0,0],"sum_hessian":[9.28E2,1.1E1,9.17E2,9E0,2E0,8E0,9.09E2,3E0,6E0,1E0,1E0,4E0,4E0,4.5E1,8.64E2],"tree_param":{"num_deleted":"0","num_feature":"23","num_nodes":"15","size_leaf_vector":"1"}},{"base_weights":[-4.9063416E-5,3.945829E-3,-1.7497323E-4,5.5344887E-3,-6.9697527E-3,-1.8833895E-3,1.8885748E-4,3.6376386E-4,1.0934909E-3,-7.19385E-5,-8.813414E-4,-8.166895E-5,-7.185479E-4,-1.5944996E-4,5.5458946E-5],"categories":[],"categories_nodes":[],"categories_segments":[],"categories_sizes":[],"default_left":[0,0,0,0,0,0,0,0,0,0,0,0,0,0,0],"id":31,"left_children":[1,3,5,7,9,11,13,-1,-1,-1,-1,-1,-1,-1,-1],"loss_changes":[4.6093191E-4,5.2412617E-4,5.523137E-4,2.163173E-4,3.9754E-5,8.7642705E-4,4.7896936E-4,0E0,0E0,0E0,0E0,0E0,0E0,0E0,0E0],"parents":[2147483647,0,0,1,1,2,2,3,3,4,4,5,5,6,6],"right_children":[2,4,6,8,10,12,14,-1,-1,-1,-1,-1,-1,-1,-1],"split_conditions":[6.834626E1,6.6672035E1,8.4264493E-1,4.176751E-3,9.099994E-3,6.1754775E-1,-5.9010386E-1,3.6376386E-4,1.0934909E-3,-7.19385E-5,-8.813414E-4,-8.166895E-5,-7.185479E-4,-1.5944996E-4,5.5458946E-5],"split_indices":[7,18,15,2,1,19,22,0,0,0,0,0,0,0,0],"split_type":[0,0,0,0,0,0,0,0,0,0,0,0,0,0,0],"sum_hessian":[9.14E2,2.7E1,8.87E2,2.4E1,3E0,1.55E2,7.32E2,1.9E1,5E0,1E0,2E0,1.3E2,2.5E1,1.24E2,6.08E2],"tree_param":{"num_deleted":"0","num_feature":"23","num_nodes":"15","size_leaf_vector":"1"}},{"base_weights":[-1.179428E-4,6.5285857E-3,-2.1628509E-4,-2.470893E-3,8.234406E-3,-5.309995E-3,-4.3474938E-5,-5.1765564E-5,-3.188684E-4,1.1648234E-3,2.8792067E-4,-7.7108806E-4,4.0231683E-4,1.0569696E-4,-6.118445E-5],"categories":[],"categories_nodes":[],"categories_segments":[],"categories_sizes":[],"default_left":[0,0,0,0,0,0,0,0,0,0,0,0,0,0,0],"id":32,"left_children":[1,3,5,7,9,11,13,-1,-1,-1,-1,-1,-1,-1,-1],"loss_changes":[6.275942E-4,2.3526727E-4,8.316004E-4,2.5554073E-6,1.8584303E-4,7.2566577E-4,5.729419E-4,0E0,0E0,0E0,0E0,0E0,0E0,0E0,0E0],"parents":[2147483647,0,0,1,1,2,2,3,3,4,4,5,5,6,6],"right_children":[2,4,6,8,10,12,14,-1,-1,-1,-1,-1,-1,-1,-1],"split_conditions":[-1.6229664E0,1.11406845E2,-1.1973152E0,1.0795296E2,4.7804875E0,1.7088028E0,-7.1565056E-1,-5.1765564E-5,-3.188684E-4,1.1648234E-3,2.8792067E-4,-7.7108806E-4,4.0231683E-4,1.0569696E-4,-6.118445E-5],"split_indices":[21,7,21,0,15,19,5,0,0,0,0,0,0,0,0],"split_type":[0,0,0,0,0,0,0,0,0,0,0,0,0,0,0],"sum_hessian":[9.57E2,1.3E1,9.44E2,2E0,1.1E1,3E1,9.14E2,1E0,1E0,6E0,5E0,2.4E1,6E0,3.11E2,6.03E2],"tree_param":{"num_deleted":"0","num_feature":"23","num_nodes":"15","size_leaf_vector":"1"}},{"base_weights":[2.6789034E-5,3.1798249E-4,-2.5002E-3,-2.2930399E-4,3.3621837E-3,-9.950861E-3,-4.0856723E-4,7.696128E-6,-6.2938186E-4,1.6674607E-3,2.4466708E-4,-1.8570623E-4,-1.478881E-3,9.854545E-4,-3.3096396E-4],"categories":[],"categories_nodes":[],"categories_segments":[],"categories_sizes":[],"default_left":[0,0,0,0,0,0,0,0,0,0,0,0,0,0,0],"id":33,"left_children":[1,3,5,7,9,11,13,-1,-1,-1,-1,-1,-1,-1,-1],"loss_changes":[6.8365707E-4,1.3885908E-3,1.492003E-3,1.3136308E-3,1.5070401E-3,7.9484144E-4,2.295441E-3,0E0,0E0,0E0,0E0,0E0,0E0,0E0,0E0],"parents":[2147483647,0,0,1,1,2,2,3,3,4,4,5,5,6,6],"right_children":[2,4,6,8,10,12,14,-1,-1,-1,-1,-1,-1,-1,-1],"split_conditions":[1.1368798E0,3.0483036E0,3.2798145E-2,2.5148482E0,-3.2316715E-2,1.6549623E-2,3.2520578E-3,7.696128E-6,-6.2938186E-4,1.6674607E-3,2.4466708E-4,-1.8570623E-4,-1.478881E-3,9.854545E-4,-3.3096396E-4],"split_indices":[16,4,2,4,17,2,1,0,0,0,0,0,0,0,0],"split_type":[0,0,0,0,0,0,0,0,0,0,0,0,0,0,0],"sum_hessian":[9.27E2,8.32E2,9.5E1,7.06E2,1.26E2,2E1,7.5E1,6.73E2,3.3E1,7E0,1.19E2,8E0,1.2E1,1.6E1,5.9E1],"tree_param":{"num_deleted":"0","num_feature":"23","num_nodes":"15","size_leaf_vector":"1"}},{"base_weights":[-9.4841846E-5,-3.6393644E-3,7.991049E-5,1.964346E-3,-6.9116396E-3,9.438863E-3,-5.828054E-5,-2.7194156E-4,9.0439216E-4,-1.1787303E-3,5.715192E-5,1.5015884E-3,-6.863403E-4,-3.1466663E-4,1.6721997E-5],"categories":[],"categories_nodes":[],"categories_segments":[],"categories_sizes":[],"default_left":[0,0,0,0,0,0,0,0,0,0,0,0,0,0,0],"id":34,"left_children":[1,3,5,7,9,11,13,-1,-1,-1,-1,-1,-1,-1,-1],"loss_changes":[5.800619E-4,8.2039967E-4,1.1554878E-3,5.8829796E-4,1.028327E-3,1.284995E-3,6.140832E-4,0E0,0E0,0E0,0E0,0E0,0E0,0E0,0E0],"parents":[2147483647,0,0,1,1,2,2,3,3,4,4,5,5,6,6],"right_children":[2,4,6,8,10,12,14,-1,-1,-1,-1,-1,-1,-1,-1],"split_conditions":[-4.897208E0,3.783284E1,-4.614019E0,-9.6485347E-1,1.1850767E0,-5.042709E-3,-1.671769E-2,-2.7194156E-4,9.0439216E-4,-1.1787303E-3,5.715192E-5,1.5015884E-3,-6.863403E-4,-3.1466663E-4,1.6721997E-5],"split_indices":[3,18,3,17,19,1,1,0,0,0,0,0,0,0,0],"split_type":[0,0,0,0,0,0,0,0,0,0,0,0,0,0,0],"sum_hessian":[9.35E2,4.3E1,8.92E2,1.6E1,2.7E1,1.2E1,8.8E2,1E1,6E0,1.6E1,1.1E1,9E0,3E0,5.9E1,8.21E2],"tree_param":{"num_deleted":"0","num_feature":"23","num_nodes":"15","size_leaf_vector":"1"}},{"base_weights":[-1.9443779E-4,1.0236623E-3,-2.3928638E-4,-3.7242535E-3,-8.596093E-5,5.757468E-4,-5.978301E-4,7.491848E-4,-2.513545E-5],"categories":[],"categories_nodes":[],"categories_segments":[],"categories_sizes":[],"default_left":[0,0,0,0,0,0,0,0,0],"id":35,"left_children":[1,-1,3,5,7,-1,-1,-1,-1],"loss_changes":[4.3705286E-4,0E0,4.9447326E-4,8.6793763E-4,1.1148322E-3,0E0,0E0,0E0,0E0],"parents":[2147483647,0,0,2,2,3,3,4,4],"right_children":[2,-1,4,6,8,-1,-1,-1,-1],"split_conditions":[-1.8185312E0,1.0236623E-3,-4.897208E0,2.2469232E0,-4.366919E0,5.757468E-4,-5.978301E-4,7.491848E-4,-2.513545E-5],"split_indices":[21,0,3,14,3,0,0,0,0],"split_type":[0,0,0,0,0,0,0,0,0],"sum_hessian":[9.28E2,3E0,9.25E2,3.8E1,8.87E2,7E0,3.1E1,1.8E1,8.69E2],"tree_param":{"num_deleted":"0","num_feature":"23","num_nodes":"9","size_leaf_vector":"1"}},{"base_weights":[-4.6492906E-4,-2.8305917E-4,-4.3337503E-3,-4.884802E-4,3.7057404E-3,-1.00911E-2,-7.614787E-4,-6.6422166E-5,3.7643572E-4,1.4309298E-4,1.2393234E-3,-1.260629E-3,-2.0364216E-4,4.6250035E-4,-5.378998E-4],"categories":[],"categories_nodes":[],"categories_segments":[],"categories_sizes":[],"default_left":[0,0,0,0,0,0,0,0,0,0,0,0,0,0,0],"id":36,"left_children":[1,3,5,7,9,11,13,-1,-1,-1,-1,-1,-1,-1,-1],"loss_changes":[6.580673E-4,7.359775E-4,8.561222E-4,6.4003246E-4,8.518119E-4,2.9847305E-4,6.964269E-4,0E0,0E0,0E0,0E0,0E0,0E0,0E0,0E0],"parents":[2147483647,0,0,1,1,2,2,3,3,4,4,5,5,6,6],"right_children":[2,4,6,8,10,12,14,-1,-1,-1,-1,-1,-1,-1,-1],"split_conditions":[5.302454E0,7.370747E1,5.399378E-1,2.1666324E-2,2.5109985E0,4.1108778E-1,1.0745221E0,-6.6422166E-5,3.7643572E-4,1.4309298E-4,1.2393234E-3,-1.260629E-3,-2.0364216E-4,4.6250035E-4,-5.378998E-4],"split_indices":[3,18,17,1,14,21,17,0,0,0,0,0,0,0,0],"split_type":[0,0,0,0,0,0,0,0,0,0,0,0,0,0,0],"sum_hessian":[9.36E2,8.95E2,4.1E1,8.52E2,4.3E1,1.5E1,2.6E1,8.19E2,3.3E1,3.5E1,8E0,1.1E1,4E0,1.2E1,1.4E1],"tree_param":{"num_deleted":"0","num_feature":"23","num_nodes":"15","size_leaf_vector":"1"}},{"base_weights":[-7.2891903E-6,5.2832856E-5,-9.28491E-3,-1.20501456E-4,3.09206E-3,-2.5153087E-4,-1.5216075E-3,2.1543878E-5,-3.0245067E-4,8.229875E-4,8.654131E-5],"categories":[],"categories_nodes":[],"categories_segments":[],"categories_sizes":[],"default_left":[0,0,0,0,0,0,0,0,0,0,0],"id":37,"left_children":[1,3,5,7,9,-1,-1,-1,-1,-1,-1],"loss_changes":[5.197926E-4,4.8819158E-4,2.0263664E-4,8.5622835E-4,5.648827E-4,0E0,0E0,0E0,0E0,0E0,0E0],"parents":[2147483647,0,0,1,1,2,2,3,3,4,4],"right_children":[2,4,6,8,10,-1,-1,-1,-1,-1,-1],"split_conditions":[8.5162056E1,7.370747E1,1.2440748E2,6.682742E1,4.0621883E-3,-2.5153087E-4,-1.5216075E-3,2.1543878E-5,-3.0245067E-4,8.229875E-4,8.654131E-5],"split_indices":[18,18,7,18,1,0,0,0,0,0,0],"split_type":[0,0,0,0,0,0,0,0,0,0,0],"sum_hessian":[9.3E2,9.25E2,5E0,8.76E2,4.9E1,3E0,2E0,7.86E2,9E1,1.4E1,3.5E1],"tree_param":{"num_deleted":"0","num_feature":"23","num_nodes":"11","size_leaf_vector":"1"}},{"base_weights":[-4.814422E-5,1.1242771E-3,-9.7076445E-5,-6.528078E-3,1.6477139E-5,3.176786E-4,-1.2668675E-3,1.9776149E-4,-2.679457E-5],"categories":[],"categories_nodes":[],"categories_segments":[],"categories_sizes":[],"default_left":[0,0,0,0,0,0,0,0,0],"id":38,"left_children":[1,-1,3,5,7,-1,-1,-1,-1],"loss_changes":[5.121443E-4,0E0,6.734103E-4,9.93744E-4,5.0644757E-4,0E0,0E0,0E0,0E0],"parents":[2147483647,0,0,2,2,3,3,4,4],"right_children":[2,-1,4,6,8,-1,-1,-1,-1],"split_conditions":[-1.0940355E1,1.1242771E-3,-6.7628055E0,3.5355717E1,-6.6755503E-1,3.176786E-4,-1.2668675E-3,1.9776149E-4,-2.679457E-5],"split_indices":[4,0,3,18,16,0,0,0,0],"split_type":[0,0,0,0,0,0,0,0,0],"sum_hessian":[9.24E2,3E0,9.21E2,1.5E1,9.06E2,6E0,9E0,1.14E2,7.92E2],"tree_param":{"num_deleted":"0","num_feature":"23","num_nodes":"9","size_leaf_vector":"1"}},{"base_weights":[1.2766685E-4,9.533106E-4,-8.137491E-4,-1.9792537E-4,2.6753007E-3,-1.5211769E-3,2.1536148E-3,6.748401E-6,-5.9400423E-4,4.2250412E-4,-2.3835286E-5,1.5589068E-4,-2.526391E-4,3.6997057E-4,-4.0664856E-4],"categories":[],"categories_nodes":[],"categories_segments":[],"categories_sizes":[],"default_left":[0,0,0,0,0,0,0,0,0,0,0,0,0,0,0],"id":39,"left_children":[1,3,5,7,9,11,13,-1,-1,-1,-1,-1,-1,-1,-1],"loss_changes":[7.135361E-4,9.6993125E-4,9.0383104E-4,4.484603E-4,8.8602677E-4,1.0783E-3,8.132425E-4,0E0,0E0,0E0,0E0,0E0,0E0,0E0,0E0],"parents":[2147483647,0,0,1,1,2,2,3,3,4,4,5,5,6,6],"right_children":[2,4,6,8,10,12,14,-1,-1,-1,-1,-1,-1,-1,-1],"split_conditions":[1.9504019E0,9.8721825E1,3.1726298E0,9.880212E1,2.0329716E0,1.370738E0,5.5392566E0,6.748401E-6,-5.9400423E-4,4.2250412E-4,-2.3835286E-5,1.5589068E-4,-2.526391E-4,3.6997057E-4,-4.0664856E-4],"split_indices":[15,12,20,0,5,14,20,0,0,0,0,0,0,0,0],"split_type":[0,0,0,0,0,0,0,0,0,0,0,0,0,0,0],"sum_hessian":[9.16E2,4.88E2,4.28E2,2.93E2,1.95E2,3.46E2,8.2E1,2.81E2,1.2E1,1.27E2,6.8E1,8.5E1,2.61E2,6.6E1,1.6E1],"tree_param":{"num_deleted":"0","num_feature":"23","num_nodes":"15","size_leaf_vector":"1"}},{"base_weights":[3.8314358E-4,6.643673E-4,-1.7499701E-3,4.146913E-4,8.397976E-3,-6.8486127E-4,-5.5380743E-3,-4.6909827E-5,1.1223741E-4,-2.85852E-4,9.455122E-4,-2.5675588E-4,5.7505537E-4,-8.4462186E-4,1.3339918E-4],"categories":[],"categories_nodes":[],"categories_segments":[],"categories_sizes":[],"default_left":[0,0,0,0,0,0,0,0,0,0,0,0,0,0,0],"id":40,"left_children":[1,3,5,7,9,11,13,-1,-1,-1,-1,-1,-1,-1,-1],"loss_changes":[5.662517E-4,1.6049541E-3,4.400289E-4,5.0588406E-4,3.364213E-4,1.0688517E-3,4.909062E-4,0E0,0E0,0E0,0E0,0E0,0E0,0E0,0E0],"parents":[2147483647,0,0,1,1,2,2,3,3,4,4,5,5,6,6],"right_children":[2,4,6,8,10,12,14,-1,-1,-1,-1,-1,-1,-1,-1],"split_conditions":[8.9847267E-1,8.4997344E-1,9.198338E-1,1.1012416E2,7.194027E1,7.317508E1,1.4546736E2,-4.6909827E-5,1.1223741E-4,-2.85852E-4,9.455122E-4,-2.5675588E-4,5.7505537E-4,-8.4462186E-4,1.3339918E-4],"split_indices":[22,22,21,9,8,18,9,0,0,0,0,0,0,0,0],"split_type":[0,0,0,0,0,0,0,0,0,0,0,0,0,0,0],"sum_hessian":[9.41E2,8.32E2,1.09E2,8.07E2,2.5E1,8.6E1,2.3E1,3.59E2,4.48E2,2E0,2.3E1,6.7E1,1.9E1,1.6E1,7E0],"tree_param":{"num_deleted":"0","num_feature":"23","num_nodes":"15","size_leaf_vector":"1"}},{"base_weights":[8.464751E-5,-2.5620107E-3,3.825344E-4,2.350287E-3,-3.940041E-3,2.4341432E-4,6.6139568E-3,-1.3004773E-5,1.2924223E-3,-1.041258E-4,-1.0612619E-3,-4.6285483E-4,3.8548766E-5,1.9264128E-3,2.7996473E-4],"categories":[],"categories_nodes":[],"categories_segments":[],"categories_sizes":[],"default_left":[0,0,0,0,0,0,0,0,0,0,0,0,0,0,0],"id":41,"left_children":[1,3,5,7,9,11,13,-1,-1,-1,-1,-1,-1,-1,-1],"loss_changes":[7.2473567E-4,6.3880486E-4,7.1446254E-4,5.5244565E-4,1.4009415E-3,5.617547E-4,8.1459736E-4,0E0,0E0,0E0,0E0,0E0,0E0,0E0,0E0],"parents":[2147483647,0,0,1,1,2,2,3,3,4,4,5,5,6,6],"right_children":[2,4,6,8,10,12,14,-1,-1,-1,-1,-1,-1,-1,-1],"split_conditions":[-1.5578581E0,-2.4148476E0,6.5396614E0,6.1726336E0,-9.9247746E-2,2.8486788E-1,3.4021264E-1,-1.3004773E-5,1.2924223E-3,-1.041258E-4,-1.0612619E-3,-4.6285483E-4,3.8548766E-5,1.9264128E-3,2.7996473E-4],"split_indices":[20,20,3,5,22,14,17,0,0,0,0,0,0,0,0],"split_type":[0,0,0,0,0,0,0,0,0,0,0,0,0,0,0],"sum_hessian":[9.17E2,9.2E1,8.25E2,2E1,7.2E1,8.08E2,1.7E1,1.7E1,3E0,5.1E1,2.1E1,2.2E1,7.86E2,3E0,1.4E1],"tree_param":{"num_deleted":"0","num_feature":"23","num_nodes":"15","size_leaf_vector":"1"}},{"base_weights":[-5.802175E-5,1.443659E-4,-2.6398639E-3,4.889806E-5,1.0245912E-2,-1.3412135E-2,1.2909508E-3,6.976099E-4,-4.209014E-6,1.5512229E-3,-3.7020276E-4,-2.993182E-5,-1.7137275E-3,3.9113016E-4,-3.584745E-4],"categories":[],"categories_nodes":[],"categories_segments":[],"categories_sizes":[],"default_left":[0,0,0,0,0,0,0,0,0,0,0,0,0,0,0],"id":42,"left_children":[1,3,5,7,9,11,13,-1,-1,-1,-1,-1,-1,-1,-1],"loss_changes":[4.8163396E-4,8.240377E-4,2.8543489E-3,5.3478254E-4,6.4506085E-4,8.7411795E-4,6.528226E-4,0E0,0E0,0E0,0E0,0E0,0E0,0E0,0E0],"parents":[2147483647,0,0,1,1,2,2,3,3,4,4,5,5,6,6],"right_children":[2,4,6,8,10,12,14,-1,-1,-1,-1,-1,-1,-1,-1],"split_conditions":[1.5265271E2,1.5217982E2,1.5683247E2,-2.9749539E-2,4.353577E0,-1.0331678E0,5.6643733E-3,6.976099E-4,-4.209014E-6,1.5512229E-3,-3.7020276E-4,-2.993182E-5,-1.7137275E-3,3.9113016E-4,-3.584745E-4],"split_indices":[13,13,8,1,5,16,1,0,0,0,0,0,0,0,0],"split_type":[0,0,0,0,0,0,0,0,0,0,0,0,0,0,0],"sum_hessian":[9.2E2,8.54E2,6.6E1,8.47E2,7E0,1.7E1,4.9E1,1E1,8.37E2,5E0,2E0,4E0,1.3E1,3.2E1,1.7E1],"tree_param":{"num_deleted":"0","num_feature":"23","num_nodes":"15","size_leaf_vector":"1"}},{"base_weights":[1.2403102E-4,8.453816E-4,-6.5073156E-4,4.3277798E-4,5.7849283E-3,-2.9873962E-3,4.888063E-4,-3.8332087E-6,4.727175E-4,1.0577855E-3,1.6294674E-4,-1.3345366E-3,-2.5286977E-4,-1.3285636E-3,7.6543205E-5],"categories":[],"categories_nodes":[],"categories_segments":[],"categories_sizes":[],"default_left":[0,0,0,0,0,0,0,0,0,0,0,0,0,0,0],"id":43,"left_children":[1,3,5,7,9,11,13,-1,-1,-1,-1,-1,-1,-1,-1],"loss_changes":[5.1918655E-4,9.778104E-4,1.1943578E-3,9.0047554E-4,7.196859E-4,6.6467805E-4,1.1608995E-3,0E0,0E0,0E0,0E0,0E0,0E0,0E0,0E0],"parents":[2147483647,0,0,1,1,2,2,3,3,4,4,5,5,6,6],"right_children":[2,4,6,8,10,12,14,-1,-1,-1,-1,-1,-1,-1,-1],"split_conditions":[9.840165E-1,1.4053917E-1,1.2522593E0,1.9098394E0,9.634678E-1,-3.0675545E-1,-1.671769E-2,-3.8332087E-6,4.727175E-4,1.0577855E-3,1.6294674E-4,-1.3345366E-3,-2.5286977E-4,-1.3285636E-3,7.6543205E-5],"split_indices":[5,21,4,19,15,21,1,0,0,0,0,0,0,0,0],"split_type":[0,0,0,0,0,0,0,0,0,0,0,0,0,0,0],"sum_hessian":[9.27E2,4.8E2,4.47E2,4.44E2,3.6E1,1.46E2,3.01E2,4.01E2,4.3E1,1.6E1,2E1,5E0,1.41E2,5E0,2.96E2],"tree_param":{"num_deleted":"0","num_feature":"23","num_nodes":"15","size_leaf_vector":"1"}},{"base_weights":[4.197576E-5,-8.956368E-5,6.90277E-3,4.9519767E-6,-4.9268324E-3,2.6369586E-3,2.5492222E-3,-1.1108369E-4,3.7233833E-5,-6.445074E-4,1.6187209E-4,-1.2394371E-4,6.019229E-4],"categories":[],"categories_nodes":[],"categories_segments":[],"categories_sizes":[],"default_left":[0,0,0,0,0,0,0,0,0,0,0,0,0],"id":44,"left_children":[1,3,5,7,9,-1,11,-1,-1,-1,-1,-1,-1],"loss_changes":[8.155441E-4,4.0555865E-4,1.3735231E-3,3.574588E-4,1.7937424E-4,0E0,2.0466055E-4,0E0,0E0,0E0,0E0,0E0,0E0],"parents":[2147483647,0,0,1,1,2,2,3,3,4,4,6,6],"right_children":[2,4,6,8,10,-1,12,-1,-1,-1,-1,-1,-1],"split_conditions":[6.5396614E0,5.4135246E0,2.3316216E0,-4.3278152E-1,1.6565164E2,2.6369586E-3,1.0513464E0,-1.1108369E-4,3.7233833E-5,-6.445074E-4,1.6187209E-4,-1.2394371E-4,6.019229E-4],"split_indices":[3,3,15,22,7,0,22,0,0,0,0,0,0],"split_type":[0,0,0,0,0,0,0,0,0,0,0,0,0],"sum_hessian":[9.02E2,8.86E2,1.6E1,8.7E2,1.6E1,2E0,1.4E1,2.15E2,6.55E2,1.3E1,3E0,7E0,7E0],"tree_param":{"num_deleted":"0","num_feature":"23","num_nodes":"13","size_leaf_vector":"1"}},{"base_weights":[-1.6134071E-4,6.442812E-4,-1.1033858E-3,-3.5250247E-5,3.9304304E-3,-2.424558E-3,1.0059392E-3,2.8285367E-5,-7.013906E-4,4.981399E-4,-5.497901E-4,-3.930359E-4,-2.5494692E-5,6.6521537E-4,-4.1323525E-5],"categories":[],"categories_nodes":[],"categories_segments":[],"categories_sizes":[],"default_left":[0,0,0,0,0,0,0,0,0,0,0,0,0,0,0],"id":45,"left_children":[1,3,5,7,9,11,13,-1,-1,-1,-1,-1,-1,-1,-1],"loss_changes":[6.981696E-4,1.1077272E-3,1.1840343E-3,9.1659825E-4,8.6964166E-4,8.5168576E-4,1.316875E-3,0E0,0E0,0E0,0E0,0E0,0E0,0E0,0E0],"parents":[2147483647,0,0,1,1,2,2,3,3,4,4,5,5,6,6],"right_children":[2,4,6,8,10,12,14,-1,-1,-1,-1,-1,-1,-1,-1],"split_conditions":[1.8650908E0,1.4948084E0,2.0254157E0,4.0077758E-1,1.5575403E2,1.4008417E2,2.520104E0,2.8285367E-5,-7.013906E-4,4.981399E-4,-5.497901E-4,-3.930359E-4,-2.5494692E-5,6.6521537E-4,-4.1323525E-5],"split_indices":[15,15,19,21,9,13,19,0,0,0,0,0,0,0,0],"split_type":[0,0,0,0,0,0,0,0,0,0,0,0,0,0,0],"sum_hessian":[9.18E2,4.95E2,4.23E2,4.11E2,8.4E1,2.6E2,1.63E2,3.94E2,1.7E1,7.6E1,8E0,1.53E2,1.07E2,3.2E1,1.31E2],"tree_param":{"num_deleted":"0","num_feature":"23","num_nodes":"15","size_leaf_vector":"1"}},{"base_weights":[-2.1938028E-4,2.90086E-3,-4.0477287E-4,6.411092E-3,-1.8038275E-3,-3.93091E-3,-1.9057695E-4,-5.549224E-5,8.55531E-4,5.064715E-4,-4.5259434E-4,-5.054829E-4,1.0257863E-3,7.998002E-4,-2.7042788E-5],"categories":[],"categories_nodes":[],"categories_segments":[],"categories_sizes":[],"default_left":[0,0,0,0,0,0,0,0,0,0,0,0,0,0,0],"id":46,"left_children":[1,3,5,7,9,11,13,-1,-1,-1,-1,-1,-1,-1,-1],"loss_changes":[5.362584E-4,8.703207E-4,6.593692E-4,4.5284722E-4,4.5295287E-4,8.4920315E-4,5.41602E-4,0E0,0E0,0E0,0E0,0E0,0E0,0E0,0E0],"parents":[2147483647,0,0,1,1,2,2,3,3,4,4,5,5,6,6],"right_children":[2,4,6,8,10,12,14,-1,-1,-1,-1,-1,-1,-1,-1],"split_conditions":[3.447917E1,-5.316557E-1,-8.238561E-1,-1.5071751E0,6.834626E1,1.1850767E0,-2.8859918E0,-5.549224E-5,8.55531E-4,5.064715E-4,-4.5259434E-4,-5.054829E-4,1.0257863E-3,7.998002E-4,-2.7042788E-5],"split_indices":[18,16,22,17,7,19,19,0,0,0,0,0,0,0,0],"split_type":[0,0,0,0,0,0,0,0,0,0,0,0,0,0,0],"sum_hessian":[9.24E2,5.1E1,8.73E2,2.9E1,2.2E1,4.9E1,8.24E2,7E0,2.2E1,6E0,1.6E1,4.6E1,3E0,7E0,8.17E2],"tree_param":{"num_deleted":"0","num_feature":"23","num_nodes":"15","size_leaf_vector":"1"}},{"base_weights":[1.6062206E-4,-1.794447E-4,1.5164872E-3,8.31387E-5,-5.6360527E-3,-1.7617067E-3,2.6914617E-3,4.9224927E-5,-2.0359266E-4,-2.3095081E-4,-1.4989459E-3,9.66255E-5,-6.03836E-4,4.5234305E-4,-4.3564538E-5],"categories":[],"categories_nodes":[],"categories_segments":[],"categories_sizes":[],"default_left":[0,0,0,0,0,0,0,0,0,0,0,0,0,0,0],"id":47,"left_children":[1,3,5,7,9,11,13,-1,-1,-1,-1,-1,-1,-1,-1],"loss_changes":[4.3922476E-4,1.0922733E-3,7.404343E-4,6.321286E-4,1.05439E-3,6.0082844E-4,8.097262E-4,0E0,0E0,0E0,0E0,0E0,0E0,0E0,0E0],"parents":[2147483647,0,0,1,1,2,2,3,3,4,4,5,5,6,6],"right_children":[2,4,6,8,10,12,14,-1,-1,-1,-1,-1,-1,-1,-1],"split_conditions":[3.0103276E0,2.7417614E0,1.2885828E2,1.427882E2,2.1130915E0,1.1980313E2,9.511192E-1,4.9224927E-5,-2.0359266E-4,-2.3095081E-4,-1.4989459E-3,9.66255E-5,-6.03836E-4,4.5234305E-4,-4.3564538E-5],"split_indices":[15,15,7,0,20,12,16,0,0,0,0,0,0,0,0],"split_type":[0,0,0,0,0,0,0,0,0,0,0,0,0,0,0],"sum_hessian":[9.51E2,7.61E2,1.9E2,7.27E2,3.4E1,5E1,1.4E2,6.1E2,1.17E2,2.6E1,8E0,3.1E1,1.9E1,8.8E1,5.2E1],"tree_param":{"num_deleted":"0","num_feature":"23","num_nodes":"15","size_leaf_vector":"1"}},{"base_weights":[2.1627254E-4,-3.8420113E-3,3.3060383E-4,4.5783934E-3,-5.1393854E-3,3.868335E-4,-7.0666475E-3,6.1194965E-4,-2.2458291E-6,-1.0239439E-3,-1.7367279E-4,2.565587E-5,5.2125956E-4,-1.8198657E-4,-1.3455735E-3],"categories":[],"categories_nodes":[],"categories_segments":[],"categories_sizes":[],"default_left":[0,0,0,0,0,0,0,0,0,0,0,0,0,0,0],"id":48,"left_children":[1,3,5,7,9,11,13,-1,-1,-1,-1,-1,-1,-1,-1],"loss_changes":[4.4020356E-4,3.0756491E-4,3.8581903E-4,2.8498987E-5,3.813528E-4,5.739005E-4,2.1016743E-4,0E0,0E0,0E0,0E0,0E0,0E0,0E0,0E0],"parents":[2147483647,0,0,1,1,2,2,3,3,4,4,5,5,6,6],"right_children":[2,4,6,8,10,12,14,-1,-1,-1,-1,-1,-1,-1,-1],"split_conditions":[2.8486788E-1,3.447917E1,1.8823566E2,-8.5894704E-2,4.8353973E-1,1.6877014E2,-4.538677E-5,6.1194965E-4,-2.2458291E-6,-1.0239439E-3,-1.7367279E-4,2.565587E-5,5.2125956E-4,-1.8198657E-4,-1.3455735E-3],"split_indices":[14,18,7,3,15,9,1,0,0,0,0,0,0,0,0],"split_type":[0,0,0,0,0,0,0,0,0,0,0,0,0,0,0],"sum_hessian":[9.45E2,2.5E1,9.2E2,3E0,2.2E1,9.14E2,6E0,2E0,1E0,8E0,1.4E1,8.91E2,2.3E1,4E0,2E0],"tree_param":{"num_deleted":"0","num_feature":"23","num_nodes":"15","size_leaf_vector":"1"}},{"base_weights":[-4.6486866E-6,-9.634393E-4,6.142614E-4,-7.171222E-4,-1.1896488E-2,1.0595865E-3,-2.2767156E-3,3.032502E-4,-1.1315338E-4,-5.639004E-4,-2.0445965E-3,5.485072E-5,3.0575326E-4,6.419228E-4,-3.5406367E-4],"categories":[],"categories_nodes":[],"categories_segments":[],"categories_sizes":[],"default_left":[0,0,0,0,0,0,0,0,0,0,0,0,0,0,0],"id":49,"left_children":[1,3,5,7,9,11,13,-1,-1,-1,-1,-1,-1,-1,-1],"loss_changes":[5.536454E-4,9.771056E-4,7.323823E-4,5.61277E-4,3.1269074E-4,5.007085E-4,8.580432E-4,0E0,0E0,0E0,0E0,0E0,0E0,0E0,0E0],"parents":[2147483647,0,0,1,1,2,2,3,3,4,4,5,5,6,6],"right_children":[2,4,6,8,10,12,14,-1,-1,-1,-1,-1,-1,-1,-1],"split_conditions":[-3.2675582E-1,6.911555E1,1.8033022E-2,-8.970885E0,3.010688E-3,3.2798145E-2,4.7415623E1,3.032502E-4,-1.1315338E-4,-5.639004E-4,-2.0445965E-3,5.485072E-5,3.0575326E-4,6.419228E-4,-3.5406367E-4],"split_indices":[3,18,1,5,1,2,18,0,0,0,0,0,0,0,0],"split_type":[0,0,0,0,0,0,0,0,0,0,0,0,0,0,0],"sum_hessian":[9.31E2,3.65E2,5.66E2,3.58E2,7E0,4.91E2,7.5E1,3.5E1,3.23E2,5E0,2E0,3.92E2,9.9E1,9E0,6.6E1],"tree_param":{"num_deleted":"0","num_feature":"23","num_nodes":"15","size_leaf_vector":"1"}}]},"name":"gbtree"},"learner_model_param":{"base_score":"[7.6060643E-4]","boost_from_average":"1","num_class":"0","num_feature":"23","num_target":"1"},"objective":{"name":"reg:squarederror","reg_loss_param":{"scale_pos_weight":"1"}}},"version":[3,1,1]}